encog,BasicNetwork,java,3.3.0,1,63570366410895
[BASIC]
[BASIC:PARAMS]
[BASIC:NETWORK]
beginTraining=0
connectionLimit=0
contextTargetOffset=0,0,0
contextTargetSize=0,0,0
endTraining=2
hasContext=f
inputCount=4
layerCounts=3,7,5
layerFeedCounts=2,6,4
layerContextCount=0,0,0
layerIndex=0,3,10
output=0,0,1,0,0,0,0,0,0,1,0,0,0,0,1
outputCount=2
weightIndex=0,14,44
weights=-0.171351405406069,-0.0964176976570942,0.23227840346856,-0.297212786645262,0.341059155455352,-0.655887795451976,-0.33486603914521,-0.816618061539073,0.551066388167006,-0.0464416383981898,0.737385775771637,0.341598900659754,-0.959436140004283,0.472396839164382,0.0784869832352209,-0.00798520399629377,-0.592668923359676,-0.478417888972172,-0.574657532188416,0.0216988758285059,0.193958759863842,0.310754694654958,-0.557001986334567,0.610367880952716,-0.510021678875211,0.90701791080973,-0.207344829667054,0.772035862213017,0.793548749663657,0.0461211069701803,-0.384090155076278,-0.98931358661005,-0.0506395711799337,-0.883372795713773,-0.893176713908639,0.654554596941245,-0.0221620290643358,-0.886915924906226,0.284289517106623,-0.167158970221486,0.364597810136433,-0.429608668866385,-0.432687663209014,-0.69579716198882
biasActivation=1,1,1
[BASIC:ACTIVATION]
"ActivationTANH"
"ActivationTANH"
"ActivationLinear"
